encog,BasicNetwork,java,3.3.0,1,1501812753670
[BASIC]
[BASIC:PARAMS]
[BASIC:NETWORK]
beginTraining=0
connectionLimit=0
contextTargetOffset=0,0,0
contextTargetSize=0,0,0
endTraining=2
hasContext=f
inputCount=4
layerCounts=1,8,5
layerFeedCounts=1,7,4
layerContextCount=0,0,0
layerIndex=0,1,9
output=-0.0918293013,-0.3211632218,-0.9066791601,-0.8885170125,-0.2631530174,0.5325453416,-0.9992642192,-0.99998791,1,-0.6361153639,-0.5449834425,-0.8704103672,-0.306122449,1
outputCount=1
weightIndex=0,8,43
weights=0.2852897441,0.5812536309,0.6559493296,0.8195038026,-0.5762521214,-0.5444107639,-0.5075815425,0.5803182087,0.7454926058,1.1858531925,-0.4797801724,0.2716885362,0.4531104079,0.4470886188,0.384193595,0.8192411301,-0.0438224308,-0.3150974201,0.3979979529,-0.2273888523,0.7468065226,-0.4244182797,-0.7654839454,-0.6986793964,0.055124145,0.9102389945,0.037653205,0.1199159864,-0.1779653432,0.8670708921,-0.9101399751,0.4331809077,0.2934353697,2.4663187715,-1.9335004179,4.6901224433,-0.9492870757,0.3531919166,16.4028950243,-13.501138703,0.1376240377,0.0447839549,-2.7983998386
biasActivation=0,1,1
[BASIC:ACTIVATION]
"org.encog.engine.network.activation.ActivationTANH"
"org.encog.engine.network.activation.ActivationTANH"
"org.encog.engine.network.activation.ActivationLinear"
